digraph Tree {
node [shape=box, style="filled, rounded", color="black", fontname=helvetica] ;
edge [fontname=helvetica] ;
0 [label="2ndFlrSF <= 467.5\nfriedman_mse = 1.0\nsamples = 1013\nvalue = 0.009", fillcolor="#e5813945"] ;
1 [label="Id <= 1200.0\nfriedman_mse = 0.998\nsamples = 600\nvalue = -0.04", fillcolor="#e5813945"] ;
0 -> 1 [labeldistance=2.5, labelangle=45, headlabel="True"] ;
2 [label="Id <= 17.5\nfriedman_mse = 0.994\nsamples = 487\nvalue = -0.08", fillcolor="#e5813945"] ;
1 -> 2 ;
3 [label="friedman_mse = 0.49\nsamples = 7\nvalue = 253.898", fillcolor="#e5813947"] ;
2 -> 3 ;
4 [label="GarageArea <= 295.5\nfriedman_mse = 0.992\nsamples = 480\nvalue = -0.092", fillcolor="#e5813945"] ;
2 -> 4 ;
5 [label="(...)", fillcolor="#C0C0C0"] ;
4 -> 5 ;
8 [label="(...)", fillcolor="#C0C0C0"] ;
4 -> 8 ;
11 [label="YearBuilt <= 1967.5\nfriedman_mse = 0.982\nsamples = 113\nvalue = 0.133", fillcolor="#e5813945"] ;
1 -> 11 ;
12 [label="BsmtUnfSF <= 366.0\nfriedman_mse = 0.972\nsamples = 48\nvalue = -0.167", fillcolor="#e5813945"] ;
11 -> 12 ;
13 [label="(...)", fillcolor="#C0C0C0"] ;
12 -> 13 ;
16 [label="(...)", fillcolor="#C0C0C0"] ;
12 -> 16 ;
19 [label="BsmtUnfSF <= 131.5\nfriedman_mse = 0.875\nsamples = 65\nvalue = 0.354", fillcolor="#e5813945"] ;
11 -> 19 ;
20 [label="(...)", fillcolor="#C0C0C0"] ;
19 -> 20 ;
21 [label="(...)", fillcolor="#C0C0C0"] ;
19 -> 21 ;
24 [label="BsmtUnfSF <= 407.0\nfriedman_mse = 0.994\nsamples = 413\nvalue = 0.08", fillcolor="#e5813945"] ;
0 -> 24 [labeldistance=2.5, labelangle=-45, headlabel="False"] ;
25 [label="GarageArea <= 840.5\nfriedman_mse = 0.955\nsamples = 155\nvalue = 0.213", fillcolor="#e5813945"] ;
24 -> 25 ;
26 [label="GarageArea <= 458.5\nfriedman_mse = 0.971\nsamples = 147\nvalue = 0.17", fillcolor="#e5813945"] ;
25 -> 26 ;
27 [label="(...)", fillcolor="#C0C0C0"] ;
26 -> 27 ;
30 [label="(...)", fillcolor="#C0C0C0"] ;
26 -> 30 ;
33 [label="friedman_mse = 0.0\nsamples = 8\nvalue = 22628.604", fillcolor="#e58139ff"] ;
25 -> 33 ;
34 [label="2ndFlrSF <= 709.0\nfriedman_mse = 1.0\nsamples = 258\nvalue = 0.0", fillcolor="#e5813945"] ;
24 -> 34 ;
35 [label="LotArea <= 9070.0\nfriedman_mse = 0.967\nsamples = 88\nvalue = 0.182", fillcolor="#e5813945"] ;
34 -> 35 ;
36 [label="(...)", fillcolor="#C0C0C0"] ;
35 -> 36 ;
39 [label="(...)", fillcolor="#C0C0C0"] ;
35 -> 39 ;
42 [label="2ndFlrSF <= 740.0\nfriedman_mse = 0.991\nsamples = 170\nvalue = -0.094", fillcolor="#e5813945"] ;
34 -> 42 ;
43 [label="(...)", fillcolor="#C0C0C0"] ;
42 -> 43 ;
46 [label="(...)", fillcolor="#C0C0C0"] ;
42 -> 46 ;
}